digraph Tree {
node [shape=box, style="filled, rounded", color="black", fontname="helvetica"] ;
edge [fontname="helvetica"] ;
0 [label="scaler__Max Temp (°C) <= -1.42\nsquared_error = 22673.54\nsamples = 71\nvalue = 1132.86", fillcolor="#f8ddc9"] ;
1 [label="scaler__Total Snow (cm) <= 2.09\nsquared_error = 26198.93\nsamples = 9\nvalue = 1453.27", fillcolor="#eda978"] ;
0 -> 1 [labeldistance=2.5, labelangle=45, headlabel="True"] ;
2 [label="scaler__Spd of Max Gust (km/h) <= -0.88\nsquared_error = 6749.67\nsamples = 5\nvalue = 1582.0", fillcolor="#e99558"] ;
1 -> 2 ;
3 [label="scaler__Total Precip (mm) <= -0.2\nsquared_error = 0.25\nsamples = 2\nvalue = 1503.5", fillcolor="#eca16c"] ;
2 -> 3 ;
4 [label="squared_error = 0.0\nsamples = 1\nvalue = 1503.0", fillcolor="#eca16c"] ;
3 -> 4 ;
5 [label="squared_error = 0.0\nsamples = 1\nvalue = 1504.0", fillcolor="#eca16c"] ;
3 -> 5 ;
6 [label="scaler__Min Temp (°C) <= -2.85\nsquared_error = 5502.69\nsamples = 3\nvalue = 1621.25", fillcolor="#e88e4e"] ;
2 -> 6 ;
7 [label="squared_error = 0.0\nsamples = 1\nvalue = 1704.0", fillcolor="#e58139"] ;
6 -> 7 ;
8 [label="onehot__direction_northbound <= 0.5\nsquared_error = 4293.56\nsamples = 2\nvalue = 1593.67", fillcolor="#e99355"] ;
6 -> 8 ;
9 [label="squared_error = 0.0\nsamples = 1\nvalue = 1501.0", fillcolor="#eca26c"] ;
8 -> 9 ;
10 [label="squared_error = 0.0\nsamples = 1\nvalue = 1640.0", fillcolor="#e78b49"] ;
8 -> 10 ;
11 [label="onehot__direction_northbound <= 0.5\nsquared_error = 5791.36\nsamples = 4\nvalue = 1298.8", fillcolor="#f2c29f"] ;
1 -> 11 ;
12 [label="remainder__Dir of Max Gust (10s deg) <= 18.0\nsquared_error = 1056.25\nsamples = 2\nvalue = 1216.5", fillcolor="#f5cfb4"] ;
11 -> 12 ;
13 [label="squared_error = 0.0\nsamples = 1\nvalue = 1249.0", fillcolor="#f4caac"] ;
12 -> 13 ;
14 [label="squared_error = 0.0\nsamples = 1\nvalue = 1184.0", fillcolor="#f6d5bc"] ;
12 -> 14 ;
15 [label="scaler__Spd of Max Gust (km/h) <= -0.54\nsquared_error = 1422.22\nsamples = 2\nvalue = 1353.67", fillcolor="#f1b991"] ;
11 -> 15 ;
16 [label="squared_error = 0.0\nsamples = 1\nvalue = 1327.0", fillcolor="#f2be98"] ;
15 -> 16 ;
17 [label="squared_error = 0.0\nsamples = 1\nvalue = 1407.0", fillcolor="#efb184"] ;
15 -> 17 ;
18 [label="scaler__Snow on Grnd (cm) <= -0.22\nsquared_error = 10161.94\nsamples = 62\nvalue = 1098.64", fillcolor="#f9e2d2"] ;
0 -> 18 [labeldistance=2.5, labelangle=-45, headlabel="False"] ;
19 [label="remainder__Dir of Max Gust (10s deg) <= 34.5\nsquared_error = 9038.27\nsamples = 55\nvalue = 1085.65", fillcolor="#fae4d5"] ;
18 -> 19 ;
20 [label="scaler__Total Precip (mm) <= 3.32\nsquared_error = 7077.99\nsamples = 53\nvalue = 1073.31", fillcolor="#fae6d8"] ;
19 -> 20 ;
21 [label="onehot__direction_southbound <= 0.5\nsquared_error = 5627.84\nsamples = 52\nvalue = 1065.69", fillcolor="#fae8da"] ;
20 -> 21 ;
22 [label="scaler__Max Temp (°C) <= -0.07\nsquared_error = 3910.09\nsamples = 26\nvalue = 1029.56", fillcolor="#fbede3"] ;
21 -> 22 ;
23 [label="scaler__Spd of Max Gust (km/h) <= -0.04\nsquared_error = 652.44\nsamples = 9\nvalue = 1089.67", fillcolor="#f9e4d4"] ;
22 -> 23 ;
24 [label="scaler__Max Temp (°C) <= -0.65\nsquared_error = 355.25\nsamples = 4\nvalue = 1066.5", fillcolor="#fae7da"] ;
23 -> 24 ;
25 [label="scaler__Min Temp (°C) <= -0.86\nsquared_error = 4.22\nsamples = 3\nvalue = 1055.67", fillcolor="#fbe9dd"] ;
24 -> 25 ;
26 [label="squared_error = 0.0\nsamples = 1\nvalue = 1053.0", fillcolor="#fbeadd"] ;
25 -> 26 ;
27 [label="scaler__Max Temp (°C) <= -0.93\nsquared_error = 1.0\nsamples = 2\nvalue = 1057.0", fillcolor="#fae9dc"] ;
25 -> 27 ;
28 [label="squared_error = 0.0\nsamples = 1\nvalue = 1056.0", fillcolor="#fae9dd"] ;
27 -> 28 ;
29 [label="squared_error = 0.0\nsamples = 1\nvalue = 1058.0", fillcolor="#fae9dc"] ;
27 -> 29 ;
30 [label="squared_error = 0.0\nsamples = 1\nvalue = 1099.0", fillcolor="#f9e2d2"] ;
24 -> 30 ;
31 [label="scaler__Min Temp (°C) <= -0.71\nsquared_error = 117.36\nsamples = 5\nvalue = 1108.2", fillcolor="#f9e1cf"] ;
23 -> 31 ;
32 [label="squared_error = 0.0\nsamples = 1\nvalue = 1129.0", fillcolor="#f8ddca"] ;
31 -> 32 ;
33 [label="scaler__Spd of Max Gust (km/h) <= 0.47\nsquared_error = 11.5\nsamples = 4\nvalue = 1103.0", fillcolor="#f9e2d1"] ;
31 -> 33 ;
34 [label="scaler__Mean Temp (°C) <= -0.68\nsquared_error = 4.0\nsamples = 2\nvalue = 1106.0", fillcolor="#f9e1d0"] ;
33 -> 34 ;
35 [label="squared_error = 0.0\nsamples = 1\nvalue = 1104.0", fillcolor="#f9e1d1"] ;
34 -> 35 ;
36 [label="squared_error = 0.0\nsamples = 1\nvalue = 1108.0", fillcolor="#f9e1d0"] ;
34 -> 36 ;
37 [label="remainder__Dir of Max Gust (10s deg) <= 31.0\nsquared_error = 1.0\nsamples = 2\nvalue = 1100.0", fillcolor="#f9e2d2"] ;
33 -> 37 ;
38 [label="squared_error = 0.0\nsamples = 1\nvalue = 1101.0", fillcolor="#f9e2d1"] ;
37 -> 38 ;
39 [label="squared_error = 0.0\nsamples = 1\nvalue = 1099.0", fillcolor="#f9e2d2"] ;
37 -> 39 ;
40 [label="scaler__Max Temp (°C) <= 1.03\nsquared_error = 3478.58\nsamples = 17\nvalue = 1011.53", fillcolor="#fcf0e8"] ;
22 -> 40 ;
41 [label="scaler__Mean Temp (°C) <= 1.02\nsquared_error = 2855.98\nsamples = 12\nvalue = 995.39", fillcolor="#fcf3ec"] ;
40 -> 41 ;
42 [label="scaler__Mean Temp (°C) <= 0.76\nsquared_error = 1631.89\nsamples = 11\nvalue = 1016.33", fillcolor="#fcf0e7"] ;
41 -> 42 ;
43 [label="scaler__Mean Temp (°C) <= 0.31\nsquared_error = 709.91\nsamples = 7\nvalue = 999.08", fillcolor="#fcf2eb"] ;
42 -> 43 ;
44 [label="scaler__Spd of Max Gust (km/h) <= 0.99\nsquared_error = 545.2\nsamples = 4\nvalue = 977.0", fillcolor="#fdf6f1"] ;
43 -> 44 ;
45 [label="scaler__Max Temp (°C) <= 0.18\nsquared_error = 81.0\nsamples = 2\nvalue = 960.0", fillcolor="#fef9f5"] ;
44 -> 45 ;
46 [label="squared_error = 0.0\nsamples = 1\nvalue = 951.0", fillcolor="#fefaf7"] ;
45 -> 46 ;
47 [label="squared_error = 0.0\nsamples = 1\nvalue = 969.0", fillcolor="#fdf7f3"] ;
45 -> 47 ;
48 [label="squared_error = 533.56\nsamples = 2\nvalue = 988.33", fillcolor="#fdf4ee"] ;
44 -> 48 ;
49 [label="scaler__Spd of Max Gust (km/h) <= -0.31\nsquared_error = 230.41\nsamples = 3\nvalue = 1014.86", fillcolor="#fcf0e7"] ;
43 -> 49 ;
50 [label="scaler__Max Temp (°C) <= 0.83\nsquared_error = 0.22\nsamples = 2\nvalue = 997.33", fillcolor="#fcf3eb"] ;
49 -> 50 ;
51 [label="squared_error = 0.0\nsamples = 1\nvalue = 998.0", fillcolor="#fcf2eb"] ;
50 -> 51 ;
52 [label="squared_error = 0.0\nsamples = 1\nvalue = 997.0", fillcolor="#fcf3ec"] ;
50 -> 52 ;
53 [label="squared_error = 0.0\nsamples = 1\nvalue = 1028.0", fillcolor="#fbeee4"] ;
49 -> 53 ;
54 [label="remainder__Dir of Max Gust (10s deg) <= 31.5\nsquared_error = 1690.47\nsamples = 4\nvalue = 1050.83", fillcolor="#fbeade"] ;
42 -> 54 ;
55 [label="scaler__Spd of Max Gust (km/h) <= 0.75\nsquared_error = 256.89\nsamples = 2\nvalue = 1090.33", fillcolor="#f9e4d4"] ;
54 -> 55 ;
56 [label="squared_error = 0.0\nsamples = 1\nvalue = 1079.0", fillcolor="#fae5d7"] ;
55 -> 56 ;
57 [label="squared_error = 0.0\nsamples = 1\nvalue = 1113.0", fillcolor="#f9e0ce"] ;
55 -> 57 ;
58 [label="scaler__Min Temp (°C) <= 0.9\nsquared_error = 3.56\nsamples = 2\nvalue = 1011.33", fillcolor="#fcf0e8"] ;
54 -> 58 ;
59 [label="squared_error = 0.0\nsamples = 1\nvalue = 1010.0", fillcolor="#fcf1e8"] ;
58 -> 59 ;
60 [label="squared_error = 0.0\nsamples = 1\nvalue = 1014.0", fillcolor="#fcf0e7"] ;
58 -> 60 ;
61 [label="squared_error = 0.0\nsamples = 1\nvalue = 920.0", fillcolor="#ffffff"] ;
41 -> 61 ;
62 [label="scaler__Min Temp (°C) <= 0.51\nsquared_error = 1855.1\nsamples = 5\nvalue = 1064.57", fillcolor="#fae8da"] ;
40 -> 62 ;
63 [label="squared_error = 0.0\nsamples = 1\nvalue = 1152.0", fillcolor="#f7dac4"] ;
62 -> 63 ;
64 [label="scaler__Spd of Max Gust (km/h) <= 0.34\nsquared_error = 678.0\nsamples = 4\nvalue = 1050.0", fillcolor="#fbeade"] ;
62 -> 64 ;
65 [label="scaler__Spd of Max Gust (km/h) <= 0.02\nsquared_error = 37.56\nsamples = 2\nvalue = 1075.67", fillcolor="#fae6d8"] ;
64 -> 65 ;
66 [label="squared_error = 0.0\nsamples = 1\nvalue = 1080.0", fillcolor="#fae5d7"] ;
65 -> 66 ;
67 [label="squared_error = 0.0\nsamples = 1\nvalue = 1067.0", fillcolor="#fae7da"] ;
65 -> 67 ;
68 [label="scaler__Spd of Max Gust (km/h) <= 0.75\nsquared_error = 0.89\nsamples = 2\nvalue = 1024.33", fillcolor="#fceee5"] ;
64 -> 68 ;
69 [label="squared_error = 0.0\nsamples = 1\nvalue = 1023.0", fillcolor="#fceee5"] ;
68 -> 69 ;
70 [label="squared_error = 0.0\nsamples = 1\nvalue = 1025.0", fillcolor="#fceee4"] ;
68 -> 70 ;
71 [label="scaler__Spd of Max Gust (km/h) <= 1.29\nsquared_error = 5039.13\nsamples = 26\nvalue = 1096.33", fillcolor="#f9e3d2"] ;
21 -> 71 ;
72 [label="scaler__Spd of Max Gust (km/h) <= -0.18\nsquared_error = 4398.05\nsamples = 25\nvalue = 1104.37", fillcolor="#f9e1d0"] ;
71 -> 72 ;
73 [label="scaler__Max Temp (°C) <= -0.93\nsquared_error = 2446.35\nsamples = 8\nvalue = 1058.93", fillcolor="#fae9dc"] ;
72 -> 73 ;
74 [label="squared_error = 0.0\nsamples = 1\nvalue = 1102.0", fillcolor="#f9e2d1"] ;
73 -> 74 ;
75 [label="scaler__Max Temp (°C) <= 1.05\nsquared_error = 2386.01\nsamples = 7\nvalue = 1041.7", fillcolor="#fbebe0"] ;
73 -> 75 ;
76 [label="scaler__Min Temp (°C) <= -0.16\nsquared_error = 1773.78\nsamples = 6\nvalue = 1032.33", fillcolor="#fbede3"] ;
75 -> 76 ;
77 [label="scaler__Min Temp (°C) <= -0.54\nsquared_error = 2313.69\nsamples = 3\nvalue = 1061.25", fillcolor="#fae8db"] ;
76 -> 77 ;
78 [label="scaler__Min Temp (°C) <= -0.75\nsquared_error = 186.89\nsamples = 2\nvalue = 1034.33", fillcolor="#fbede2"] ;
77 -> 78 ;
79 [label="squared_error = 0.0\nsamples = 1\nvalue = 1044.0", fillcolor="#fbebe0"] ;
78 -> 79 ;
80 [label="squared_error = 0.0\nsamples = 1\nvalue = 1015.0", fillcolor="#fcf0e7"] ;
78 -> 80 ;
81 [label="squared_error = 0.0\nsamples = 1\nvalue = 1142.0", fillcolor="#f8dbc7"] ;
77 -> 81 ;
82 [label="scaler__Min Temp (°C) <= 0.44\nsquared_error = 137.76\nsamples = 3\nvalue = 1009.2", fillcolor="#fcf1e8"] ;
76 -> 82 ;
83 [label="scaler__Min Temp (°C) <= 0.19\nsquared_error = 5.56\nsamples = 2\nvalue = 1018.67", fillcolor="#fcefe6"] ;
82 -> 83 ;
84 [label="squared_error = 0.0\nsamples = 1\nvalue = 1022.0", fillcolor="#fcefe5"] ;
83 -> 84 ;
85 [label="squared_error = 0.0\nsamples = 1\nvalue = 1017.0", fillcolor="#fcefe7"] ;
83 -> 85 ;
86 [label="squared_error = 0.0\nsamples = 1\nvalue = 995.0", fillcolor="#fdf3ec"] ;
82 -> 86 ;
87 [label="squared_error = 0.0\nsamples = 1\nvalue = 1126.0", fillcolor="#f8decb"] ;
75 -> 87 ;
88 [label="scaler__Min Temp (°C) <= 0.01\nsquared_error = 3862.01\nsamples = 17\nvalue = 1126.31", fillcolor="#f8decb"] ;
72 -> 88 ;
89 [label="scaler__Mean Temp (°C) <= -0.82\nsquared_error = 949.44\nsamples = 3\nvalue = 1046.4", fillcolor="#fbebdf"] ;
88 -> 89 ;
90 [label="squared_error = 0.0\nsamples = 1\nvalue = 1100.0", fillcolor="#f9e2d2"] ;
89 -> 90 ;
91 [label="scaler__Min Temp (°C) <= -0.39\nsquared_error = 289.0\nsamples = 2\nvalue = 1033.0", fillcolor="#fbede2"] ;
89 -> 91 ;
92 [label="squared_error = 0.0\nsamples = 1\nvalue = 1016.0", fillcolor="#fcf0e7"] ;
91 -> 92 ;
93 [label="squared_error = 0.0\nsamples = 1\nvalue = 1050.0", fillcolor="#fbeade"] ;
91 -> 93 ;
94 [label="scaler__Min Temp (°C) <= 0.37\nsquared_error = 2861.29\nsamples = 14\nvalue = 1142.96", fillcolor="#f8dbc7"] ;
88 -> 94 ;
95 [label="scaler__Min Temp (°C) <= 0.2\nsquared_error = 1546.44\nsamples = 4\nvalue = 1201.25", fillcolor="#f6d2b8"] ;
94 -> 95 ;
96 [label="scaler__Mean Temp (°C) <= 0.16\nsquared_error = 696.89\nsamples = 2\nvalue = 1163.33", fillcolor="#f7d8c2"] ;
95 -> 96 ;
97 [label="squared_error = 0.0\nsamples = 1\nvalue = 1182.0", fillcolor="#f6d5bd"] ;
96 -> 97 ;
98 [label="squared_error = 0.0\nsamples = 1\nvalue = 1126.0", fillcolor="#f8decb"] ;
96 -> 98 ;
99 [label="scaler__Spd of Max Gust (km/h) <= 0.41\nsquared_error = 676.0\nsamples = 2\nvalue = 1224.0", fillcolor="#f5ceb2"] ;
95 -> 99 ;
100 [label="squared_error = 0.0\nsamples = 1\nvalue = 1211.0", fillcolor="#f5d0b6"] ;
99 -> 100 ;
101 [label="squared_error = 0.0\nsamples = 1\nvalue = 1276.0", fillcolor="#f3c6a5"] ;
99 -> 101 ;
102 [label="scaler__Total Precip (mm) <= 0.35\nsquared_error = 970.28\nsamples = 10\nvalue = 1113.81", fillcolor="#f9e0ce"] ;
94 -> 102 ;
103 [label="scaler__Spd of Max Gust (km/h) <= 0.63\nsquared_error = 563.21\nsamples = 9\nvalue = 1122.07", fillcolor="#f8dfcc"] ;
102 -> 103 ;
104 [label="scaler__Min Temp (°C) <= 0.84\nsquared_error = 78.57\nsamples = 4\nvalue = 1137.0", fillcolor="#f8dcc8"] ;
103 -> 104 ;
105 [label="remainder__Dir of Max Gust (10s deg) <= 14.5\nsquared_error = 28.67\nsamples = 3\nvalue = 1134.0", fillcolor="#f8ddc9"] ;
104 -> 105 ;
106 [label="scaler__Max Temp (°C) <= 0.61\nsquared_error = 6.25\nsamples = 2\nvalue = 1137.5", fillcolor="#f8dcc8"] ;
105 -> 106 ;
107 [label="squared_error = 0.0\nsamples = 1\nvalue = 1140.0", fillcolor="#f8dcc7"] ;
106 -> 107 ;
108 [label="squared_error = 0.0\nsamples = 1\nvalue = 1135.0", fillcolor="#f8dcc9"] ;
106 -> 108 ;
109 [label="squared_error = 0.0\nsamples = 1\nvalue = 1127.0", fillcolor="#f8decb"] ;
105 -> 109 ;
110 [label="squared_error = 0.0\nsamples = 1\nvalue = 1155.0", fillcolor="#f7d9c4"] ;
104 -> 110 ;
111 [label="scaler__Spd of Max Gust (km/h) <= 0.7\nsquared_error = 602.12\nsamples = 5\nvalue = 1107.14", fillcolor="#f9e1d0"] ;
103 -> 111 ;
112 [label="scaler__Mean Temp (°C) <= 0.62\nsquared_error = 110.25\nsamples = 2\nvalue = 1073.5", fillcolor="#fae6d8"] ;
111 -> 112 ;
113 [label="squared_error = 0.0\nsamples = 1\nvalue = 1084.0", fillcolor="#fae5d6"] ;
112 -> 113 ;
114 [label="squared_error = 0.0\nsamples = 1\nvalue = 1063.0", fillcolor="#fae8db"] ;
112 -> 114 ;
115 [label="scaler__Mean Temp (°C) <= 1.25\nsquared_error = 165.04\nsamples = 3\nvalue = 1120.6", fillcolor="#f8dfcc"] ;
111 -> 115 ;
116 [label="remainder__Dir of Max Gust (10s deg) <= 17.5\nsquared_error = 4.69\nsamples = 2\nvalue = 1114.25", fillcolor="#f9e0ce"] ;
115 -> 116 ;
117 [label="squared_error = 0.0\nsamples = 1\nvalue = 1113.0", fillcolor="#f9e0ce"] ;
116 -> 117 ;
118 [label="squared_error = 0.0\nsamples = 1\nvalue = 1118.0", fillcolor="#f8dfcd"] ;
116 -> 118 ;
119 [label="squared_error = 0.0\nsamples = 1\nvalue = 1146.0", fillcolor="#f8dbc6"] ;
115 -> 119 ;
120 [label="squared_error = 0.0\nsamples = 1\nvalue = 1056.0", fillcolor="#fae9dd"] ;
102 -> 120 ;
121 [label="squared_error = 0.0\nsamples = 1\nvalue = 981.0", fillcolor="#fdf5f0"] ;
71 -> 121 ;
122 [label="squared_error = 0.0\nsamples = 1\nvalue = 1289.0", fillcolor="#f3c4a2"] ;
20 -> 122 ;
123 [label="scaler__Mean Temp (°C) <= 0.74\nsquared_error = 2787.56\nsamples = 2\nvalue = 1266.67", fillcolor="#f4c7a7"] ;
19 -> 123 ;
124 [label="squared_error = 0.0\nsamples = 1\nvalue = 1192.0", fillcolor="#f6d3ba"] ;
123 -> 124 ;
125 [label="squared_error = 0.0\nsamples = 1\nvalue = 1304.0", fillcolor="#f2c19e"] ;
123 -> 125 ;
126 [label="scaler__Snow on Grnd (cm) <= 1.93\nsquared_error = 1722.67\nsamples = 7\nvalue = 1234.33", fillcolor="#f5ccb0"] ;
18 -> 126 ;
127 [label="scaler__Snow on Grnd (cm) <= 0.96\nsquared_error = 1546.12\nsamples = 6\nvalue = 1222.14", fillcolor="#f5ceb3"] ;
126 -> 127 ;
128 [label="scaler__Snow on Grnd (cm) <= 0.17\nsquared_error = 225.0\nsamples = 2\nvalue = 1194.0", fillcolor="#f6d3ba"] ;
127 -> 128 ;
129 [label="squared_error = 0.0\nsamples = 1\nvalue = 1179.0", fillcolor="#f6d5be"] ;
128 -> 129 ;
130 [label="squared_error = 0.0\nsamples = 1\nvalue = 1209.0", fillcolor="#f5d1b6"] ;
128 -> 130 ;
131 [label="onehot__direction_northbound <= 0.5\nsquared_error = 1631.04\nsamples = 4\nvalue = 1233.4", fillcolor="#f5cdb0"] ;
127 -> 131 ;
132 [label="scaler__Mean Temp (°C) <= -0.75\nsquared_error = 506.25\nsamples = 2\nvalue = 1198.5", fillcolor="#f6d2b9"] ;
131 -> 132 ;
133 [label="squared_error = 0.0\nsamples = 1\nvalue = 1176.0", fillcolor="#f7d6be"] ;
132 -> 133 ;
134 [label="squared_error = 0.0\nsamples = 1\nvalue = 1221.0", fillcolor="#f5cfb3"] ;
132 -> 134 ;
135 [label="scaler__Spd of Max Gust (km/h) <= -0.58\nsquared_error = 1027.56\nsamples = 2\nvalue = 1256.67", fillcolor="#f4c9aa"] ;
131 -> 135 ;
136 [label="squared_error = 0.0\nsamples = 1\nvalue = 1302.0", fillcolor="#f2c29f"] ;
135 -> 136 ;
137 [label="squared_error = 0.0\nsamples = 1\nvalue = 1234.0", fillcolor="#f5cdb0"] ;
135 -> 137 ;
138 [label="squared_error = 0.0\nsamples = 1\nvalue = 1277.0", fillcolor="#f3c6a5"] ;
126 -> 138 ;
}