digraph Tree {
node [shape=box, style="filled, rounded", color="black", fontname="helvetica"] ;
edge [fontname="helvetica"] ;
0 [label="scaler__Mean Temp (°C) <= -1.42\nsquared_error = 19919.34\nsamples = 66\nvalue = 1119.71", fillcolor="#f8dbc6"] ;
1 [label="scaler__Snow on Grnd (cm) <= 4.21\nsquared_error = 5187.61\nsamples = 4\nvalue = 1422.12", fillcolor="#efb388"] ;
0 -> 1 [labeldistance=2.5, labelangle=45, headlabel="True"] ;
2 [label="onehot__direction_northbound <= 0.5\nsquared_error = 80.22\nsamples = 2\nvalue = 1337.33", fillcolor="#f2be99"] ;
1 -> 2 ;
3 [label="squared_error = 0.0\nsamples = 1\nvalue = 1331.0", fillcolor="#f2bf9b"] ;
2 -> 3 ;
4 [label="squared_error = 0.0\nsamples = 1\nvalue = 1350.0", fillcolor="#f1bd97"] ;
2 -> 4 ;
5 [label="onehot__direction_southbound <= 0.5\nsquared_error = 1350.0\nsamples = 2\nvalue = 1473.0", fillcolor="#eead7e"] ;
1 -> 5 ;
6 [label="squared_error = 0.0\nsamples = 1\nvalue = 1503.0", fillcolor="#eda977"] ;
5 -> 6 ;
7 [label="squared_error = 0.0\nsamples = 1\nvalue = 1428.0", fillcolor="#efb387"] ;
5 -> 7 ;
8 [label="scaler__Total Precip (mm) <= 0.74\nsquared_error = 12727.07\nsamples = 62\nvalue = 1093.97", fillcolor="#f8decc"] ;
0 -> 8 [labeldistance=2.5, labelangle=-45, headlabel="False"] ;
9 [label="onehot__direction_northbound <= 0.5\nsquared_error = 6363.95\nsamples = 55\nvalue = 1079.13", fillcolor="#f9e0cf"] ;
8 -> 9 ;
10 [label="scaler__Spd of Max Gust (km/h) <= -0.04\nsquared_error = 9077.55\nsamples = 26\nvalue = 1112.03", fillcolor="#f8dcc8"] ;
9 -> 10 ;
11 [label="scaler__Min Temp (°C) <= -0.33\nsquared_error = 7748.63\nsamples = 8\nvalue = 1043.09", fillcolor="#fae5d6"] ;
10 -> 11 ;
12 [label="scaler__Max Temp (°C) <= -1.08\nsquared_error = 1872.89\nsamples = 3\nvalue = 1139.33", fillcolor="#f7d8c2"] ;
11 -> 12 ;
13 [label="scaler__Max Temp (°C) <= -1.6\nsquared_error = 49.0\nsamples = 2\nvalue = 1109.0", fillcolor="#f8dcc8"] ;
12 -> 13 ;
14 [label="squared_error = 0.0\nsamples = 1\nvalue = 1102.0", fillcolor="#f8ddca"] ;
13 -> 14 ;
15 [label="squared_error = 0.0\nsamples = 1\nvalue = 1116.0", fillcolor="#f8dbc7"] ;
13 -> 15 ;
16 [label="squared_error = 0.0\nsamples = 1\nvalue = 1200.0", fillcolor="#f5d0b6"] ;
12 -> 16 ;
17 [label="scaler__Total Rain (mm) <= -0.27\nsquared_error = 5176.0\nsamples = 5\nvalue = 1007.0", fillcolor="#fbeadd"] ;
11 -> 17 ;
18 [label="scaler__Mean Temp (°C) <= 0.78\nsquared_error = 1577.63\nsamples = 4\nvalue = 1030.29", fillcolor="#fae7d9"] ;
17 -> 18 ;
19 [label="remainder__Dir of Max Gust (10s deg) <= 7.5\nsquared_error = 605.0\nsamples = 3\nvalue = 1017.0", fillcolor="#fae8db"] ;
18 -> 19 ;
20 [label="scaler__Mean Temp (°C) <= 0.31\nsquared_error = 90.75\nsamples = 2\nvalue = 1000.5", fillcolor="#fbebdf"] ;
19 -> 20 ;
21 [label="squared_error = 0.0\nsamples = 1\nvalue = 1017.0", fillcolor="#fae8db"] ;
20 -> 21 ;
22 [label="squared_error = 0.0\nsamples = 1\nvalue = 995.0", fillcolor="#fbebe0"] ;
20 -> 22 ;
23 [label="squared_error = 0.0\nsamples = 1\nvalue = 1050.0", fillcolor="#f9e4d5"] ;
19 -> 23 ;
24 [label="squared_error = 0.0\nsamples = 1\nvalue = 1110.0", fillcolor="#f8dcc8"] ;
18 -> 24 ;
25 [label="squared_error = 0.0\nsamples = 1\nvalue = 844.0", fillcolor="#ffffff"] ;
17 -> 25 ;
26 [label="scaler__Min Temp (°C) <= 0.76\nsquared_error = 6894.17\nsamples = 18\nvalue = 1140.11", fillcolor="#f7d8c2"] ;
10 -> 26 ;
27 [label="scaler__Max Temp (°C) <= -0.34\nsquared_error = 5117.62\nsamples = 15\nvalue = 1158.35", fillcolor="#f7d6be"] ;
26 -> 27 ;
28 [label="remainder__Dir of Max Gust (10s deg) <= 28.5\nsquared_error = 1218.49\nsamples = 4\nvalue = 1092.71", fillcolor="#f8decc"] ;
27 -> 28 ;
29 [label="squared_error = 0.0\nsamples = 1\nvalue = 1016.0", fillcolor="#fae8dc"] ;
28 -> 29 ;
30 [label="scaler__Max Temp (°C) <= -0.53\nsquared_error = 277.25\nsamples = 3\nvalue = 1105.5", fillcolor="#f8ddc9"] ;
28 -> 30 ;
31 [label="scaler__Max Temp (°C) <= -0.89\nsquared_error = 1.69\nsamples = 2\nvalue = 1117.25", fillcolor="#f8dbc7"] ;
30 -> 31 ;
32 [label="squared_error = 0.0\nsamples = 1\nvalue = 1115.0", fillcolor="#f8dcc7"] ;
31 -> 32 ;
33 [label="squared_error = 0.0\nsamples = 1\nvalue = 1118.0", fillcolor="#f8dbc7"] ;
31 -> 33 ;
34 [label="squared_error = 0.0\nsamples = 1\nvalue = 1082.0", fillcolor="#f9e0ce"] ;
30 -> 34 ;
35 [label="remainder__Dir of Max Gust (10s deg) <= 26.0\nsquared_error = 4114.31\nsamples = 11\nvalue = 1187.06", fillcolor="#f6d2b8"] ;
27 -> 35 ;
36 [label="remainder__Dir of Max Gust (10s deg) <= 22.5\nsquared_error = 2401.91\nsamples = 8\nvalue = 1162.08", fillcolor="#f6d5be"] ;
35 -> 36 ;
37 [label="scaler__Min Temp (°C) <= 0.58\nsquared_error = 1419.01\nsamples = 7\nvalue = 1177.7", fillcolor="#f6d3ba"] ;
36 -> 37 ;
38 [label="remainder__Dir of Max Gust (10s deg) <= 18.0\nsquared_error = 1187.76\nsamples = 4\nvalue = 1160.2", fillcolor="#f6d6be"] ;
37 -> 38 ;
39 [label="scaler__Spd of Max Gust (km/h) <= 0.37\nsquared_error = 14.22\nsamples = 2\nvalue = 1132.33", fillcolor="#f7d9c4"] ;
38 -> 39 ;
40 [label="squared_error = 0.0\nsamples = 1\nvalue = 1127.0", fillcolor="#f7dac5"] ;
39 -> 40 ;
41 [label="squared_error = 0.0\nsamples = 1\nvalue = 1135.0", fillcolor="#f7d9c3"] ;
39 -> 41 ;
42 [label="scaler__Max Temp (°C) <= 0.33\nsquared_error = 36.0\nsamples = 2\nvalue = 1202.0", fillcolor="#f5d0b5"] ;
38 -> 42 ;
43 [label="squared_error = 0.0\nsamples = 1\nvalue = 1196.0", fillcolor="#f5d1b7"] ;
42 -> 43 ;
44 [label="squared_error = 0.0\nsamples = 1\nvalue = 1208.0", fillcolor="#f5cfb4"] ;
42 -> 44 ;
45 [label="scaler__Min Temp (°C) <= 0.68\nsquared_error = 1037.76\nsamples = 3\nvalue = 1195.2", fillcolor="#f6d1b7"] ;
37 -> 45 ;
46 [label="squared_error = 0.0\nsamples = 1\nvalue = 1254.0", fillcolor="#f4c9ab"] ;
45 -> 46 ;
47 [label="remainder__Dir of Max Gust (10s deg) <= 8.0\nsquared_error = 216.75\nsamples = 2\nvalue = 1180.5", fillcolor="#f6d3ba"] ;
45 -> 47 ;
48 [label="squared_error = 0.0\nsamples = 1\nvalue = 1189.0", fillcolor="#f6d2b8"] ;
47 -> 48 ;
49 [label="squared_error = 0.0\nsamples = 1\nvalue = 1155.0", fillcolor="#f7d6bf"] ;
47 -> 49 ;
50 [label="squared_error = 0.0\nsamples = 1\nvalue = 1084.0", fillcolor="#f9e0ce"] ;
36 -> 50 ;
51 [label="scaler__Spd of Max Gust (km/h) <= 0.88\nsquared_error = 1764.0\nsamples = 3\nvalue = 1262.0", fillcolor="#f4c8a9"] ;
35 -> 51 ;
52 [label="scaler__Spd of Max Gust (km/h) <= 0.49\nsquared_error = 174.22\nsamples = 2\nvalue = 1285.33", fillcolor="#f3c5a4"] ;
51 -> 52 ;
53 [label="squared_error = 0.0\nsamples = 1\nvalue = 1304.0", fillcolor="#f3c3a0"] ;
52 -> 53 ;
54 [label="squared_error = 0.0\nsamples = 1\nvalue = 1276.0", fillcolor="#f3c6a6"] ;
52 -> 54 ;
55 [label="squared_error = 0.0\nsamples = 1\nvalue = 1192.0", fillcolor="#f6d1b7"] ;
51 -> 55 ;
56 [label="remainder__Dir of Max Gust (10s deg) <= 15.5\nsquared_error = 4201.19\nsamples = 3\nvalue = 1035.25", fillcolor="#fae6d8"] ;
26 -> 56 ;
57 [label="squared_error = 0.0\nsamples = 1\nvalue = 1146.0", fillcolor="#f7d7c1"] ;
56 -> 57 ;
58 [label="scaler__Max Temp (°C) <= 0.71\nsquared_error = 150.22\nsamples = 2\nvalue = 998.33", fillcolor="#fbebdf"] ;
56 -> 58 ;
59 [label="squared_error = 0.0\nsamples = 1\nvalue = 1007.0", fillcolor="#fbeadd"] ;
58 -> 59 ;
60 [label="squared_error = 0.0\nsamples = 1\nvalue = 981.0", fillcolor="#fbede3"] ;
58 -> 60 ;
61 [label="scaler__Max Temp (°C) <= -0.28\nsquared_error = 2587.57\nsamples = 29\nvalue = 1052.53", fillcolor="#f9e4d4"] ;
9 -> 61 ;
62 [label="scaler__Mean Temp (°C) <= -0.59\nsquared_error = 599.68\nsamples = 9\nvalue = 1095.94", fillcolor="#f8decb"] ;
61 -> 62 ;
63 [label="scaler__Spd of Max Gust (km/h) <= -0.28\nsquared_error = 424.06\nsamples = 8\nvalue = 1092.27", fillcolor="#f8decc"] ;
62 -> 63 ;
64 [label="scaler__Min Temp (°C) <= -0.99\nsquared_error = 0.89\nsamples = 2\nvalue = 1057.33", fillcolor="#f9e3d3"] ;
63 -> 64 ;
65 [label="squared_error = 0.0\nsamples = 1\nvalue = 1058.0", fillcolor="#f9e3d3"] ;
64 -> 65 ;
66 [label="squared_error = 0.0\nsamples = 1\nvalue = 1056.0", fillcolor="#f9e3d3"] ;
64 -> 66 ;
67 [label="scaler__Min Temp (°C) <= -1.05\nsquared_error = 148.5\nsamples = 6\nvalue = 1101.0", fillcolor="#f8ddca"] ;
63 -> 67 ;
68 [label="squared_error = 0.0\nsamples = 1\nvalue = 1129.0", fillcolor="#f7dac4"] ;
67 -> 68 ;
69 [label="scaler__Min Temp (°C) <= -1.02\nsquared_error = 84.25\nsamples = 5\nvalue = 1098.45", fillcolor="#f8decb"] ;
67 -> 69 ;
70 [label="squared_error = 0.0\nsamples = 1\nvalue = 1074.0", fillcolor="#f9e1d0"] ;
69 -> 70 ;
71 [label="scaler__Max Temp (°C) <= -0.66\nsquared_error = 26.89\nsamples = 4\nvalue = 1100.9", fillcolor="#f8ddca"] ;
69 -> 71 ;
72 [label="scaler__Max Temp (°C) <= -1.15\nsquared_error = 6.14\nsamples = 3\nvalue = 1104.83", fillcolor="#f8ddc9"] ;
71 -> 72 ;
73 [label="remainder__Dir of Max Gust (10s deg) <= 31.0\nsquared_error = 1.69\nsamples = 2\nvalue = 1103.25", fillcolor="#f8ddca"] ;
72 -> 73 ;
74 [label="squared_error = 0.0\nsamples = 1\nvalue = 1101.0", fillcolor="#f8ddca"] ;
73 -> 74 ;
75 [label="squared_error = 0.0\nsamples = 1\nvalue = 1104.0", fillcolor="#f8ddc9"] ;
73 -> 75 ;
76 [label="squared_error = 0.0\nsamples = 1\nvalue = 1108.0", fillcolor="#f8dcc9"] ;
72 -> 76 ;
77 [label="squared_error = 0.0\nsamples = 1\nvalue = 1095.0", fillcolor="#f8decb"] ;
71 -> 77 ;
78 [label="squared_error = 0.0\nsamples = 1\nvalue = 1151.0", fillcolor="#f7d7c0"] ;
62 -> 78 ;
79 [label="scaler__Mean Temp (°C) <= 0.39\nsquared_error = 2139.27\nsamples = 20\nvalue = 1030.13", fillcolor="#fae7d9"] ;
61 -> 79 ;
80 [label="scaler__Min Temp (°C) <= 0.06\nsquared_error = 1189.41\nsamples = 7\nvalue = 994.3", fillcolor="#fbebe0"] ;
79 -> 80 ;
81 [label="scaler__Min Temp (°C) <= -0.14\nsquared_error = 1561.84\nsamples = 4\nvalue = 1008.4", fillcolor="#fbe9dd"] ;
80 -> 81 ;
82 [label="remainder__Dir of Max Gust (10s deg) <= 5.5\nsquared_error = 162.0\nsamples = 2\nvalue = 979.0", fillcolor="#fbede3"] ;
81 -> 82 ;
83 [label="squared_error = 0.0\nsamples = 1\nvalue = 997.0", fillcolor="#fbebe0"] ;
82 -> 83 ;
84 [label="squared_error = 0.0\nsamples = 1\nvalue = 970.0", fillcolor="#fceee5"] ;
82 -> 84 ;
85 [label="remainder__Dir of Max Gust (10s deg) <= 15.5\nsquared_error = 420.25\nsamples = 2\nvalue = 1052.5", fillcolor="#f9e4d4"] ;
81 -> 85 ;
86 [label="squared_error = 0.0\nsamples = 1\nvalue = 1073.0", fillcolor="#f9e1d0"] ;
85 -> 86 ;
87 [label="squared_error = 0.0\nsamples = 1\nvalue = 1032.0", fillcolor="#fae6d8"] ;
85 -> 87 ;
88 [label="scaler__Mean Temp (°C) <= 0.09\nsquared_error = 419.36\nsamples = 3\nvalue = 980.2", fillcolor="#fbede3"] ;
80 -> 88 ;
89 [label="squared_error = 533.56\nsamples = 2\nvalue = 988.33", fillcolor="#fbece1"] ;
88 -> 89 ;
90 [label="squared_error = 0.0\nsamples = 1\nvalue = 968.0", fillcolor="#fcefe5"] ;
88 -> 90 ;
91 [label="scaler__Mean Temp (°C) <= 0.56\nsquared_error = 1689.2\nsamples = 13\nvalue = 1047.19", fillcolor="#fae4d5"] ;
79 -> 91 ;
92 [label="scaler__Mean Temp (°C) <= 0.49\nsquared_error = 64.0\nsamples = 2\nvalue = 1144.0", fillcolor="#f7d8c1"] ;
91 -> 92 ;
93 [label="squared_error = 0.0\nsamples = 1\nvalue = 1152.0", fillcolor="#f7d7c0"] ;
92 -> 93 ;
94 [label="squared_error = 0.0\nsamples = 1\nvalue = 1136.0", fillcolor="#f7d9c3"] ;
92 -> 94 ;
95 [label="scaler__Spd of Max Gust (km/h) <= -0.28\nsquared_error = 769.89\nsamples = 11\nvalue = 1037.0", fillcolor="#fae6d7"] ;
91 -> 95 ;
96 [label="scaler__Max Temp (°C) <= 1.34\nsquared_error = 253.47\nsamples = 3\nvalue = 1069.17", fillcolor="#f9e2d1"] ;
95 -> 96 ;
97 [label="remainder__Dir of Max Gust (10s deg) <= 11.5\nsquared_error = 24.0\nsamples = 2\nvalue = 1076.0", fillcolor="#f9e1cf"] ;
96 -> 97 ;
98 [label="squared_error = 0.0\nsamples = 1\nvalue = 1080.0", fillcolor="#f9e0ce"] ;
97 -> 98 ;
99 [label="squared_error = 0.0\nsamples = 1\nvalue = 1070.0", fillcolor="#f9e1d0"] ;
97 -> 99 ;
100 [label="squared_error = 0.0\nsamples = 1\nvalue = 1035.0", fillcolor="#fae6d8"] ;
96 -> 100 ;
101 [label="scaler__Mean Temp (°C) <= 0.7\nsquared_error = 310.28\nsamples = 8\nvalue = 1022.15", fillcolor="#fae8da"] ;
95 -> 101 ;
102 [label="scaler__Spd of Max Gust (km/h) <= 0.37\nsquared_error = 114.82\nsamples = 4\nvalue = 1033.43", fillcolor="#fae6d8"] ;
101 -> 102 ;
103 [label="scaler__Max Temp (°C) <= 0.54\nsquared_error = 6.75\nsamples = 2\nvalue = 1024.5", fillcolor="#fae7da"] ;
102 -> 103 ;
104 [label="squared_error = 0.0\nsamples = 1\nvalue = 1029.0", fillcolor="#fae7d9"] ;
103 -> 104 ;
105 [label="squared_error = 0.0\nsamples = 1\nvalue = 1023.0", fillcolor="#fae8da"] ;
103 -> 105 ;
106 [label="scaler__Mean Temp (°C) <= 0.66\nsquared_error = 10.89\nsamples = 2\nvalue = 1045.33", fillcolor="#fae5d6"] ;
102 -> 106 ;
107 [label="squared_error = 0.0\nsamples = 1\nvalue = 1050.0", fillcolor="#f9e4d5"] ;
106 -> 107 ;
108 [label="squared_error = 0.0\nsamples = 1\nvalue = 1043.0", fillcolor="#fae5d6"] ;
106 -> 108 ;
109 [label="scaler__Min Temp (°C) <= 0.58\nsquared_error = 217.0\nsamples = 4\nvalue = 1009.0", fillcolor="#fbe9dd"] ;
101 -> 109 ;
110 [label="squared_error = 0.0\nsamples = 1\nvalue = 977.0", fillcolor="#fbeee4"] ;
109 -> 110 ;
111 [label="scaler__Max Temp (°C) <= 1.09\nsquared_error = 14.64\nsamples = 3\nvalue = 1015.4", fillcolor="#fae9dc"] ;
109 -> 111 ;
112 [label="scaler__Mean Temp (°C) <= 0.84\nsquared_error = 0.25\nsamples = 2\nvalue = 1013.5", fillcolor="#fae9dc"] ;
111 -> 112 ;
113 [label="squared_error = 0.0\nsamples = 1\nvalue = 1014.0", fillcolor="#fae9dc"] ;
112 -> 113 ;
114 [label="squared_error = 0.0\nsamples = 1\nvalue = 1013.0", fillcolor="#fae9dc"] ;
112 -> 114 ;
115 [label="squared_error = 0.0\nsamples = 1\nvalue = 1023.0", fillcolor="#fae8da"] ;
111 -> 115 ;
116 [label="scaler__Total Precip (mm) <= 1.8\nsquared_error = 51103.65\nsamples = 7\nvalue = 1234.11", fillcolor="#f4ccaf"] ;
8 -> 116 ;
117 [label="squared_error = 0.0\nsamples = 1\nvalue = 1806.0", fillcolor="#e58139"] ;
116 -> 117 ;
118 [label="remainder__Dir of Max Gust (10s deg) <= 26.5\nsquared_error = 11499.23\nsamples = 6\nvalue = 1162.62", fillcolor="#f6d5bd"] ;
116 -> 118 ;
119 [label="scaler__Max Temp (°C) <= 0.33\nsquared_error = 11584.64\nsamples = 4\nvalue = 1212.6", fillcolor="#f5cfb3"] ;
118 -> 119 ;
120 [label="onehot__direction_southbound <= 0.5\nsquared_error = 10920.25\nsamples = 2\nvalue = 1184.5", fillcolor="#f6d2b9"] ;
119 -> 120 ;
121 [label="squared_error = 0.0\nsamples = 1\nvalue = 1289.0", fillcolor="#f3c5a3"] ;
120 -> 121 ;
122 [label="squared_error = 0.0\nsamples = 1\nvalue = 1080.0", fillcolor="#f9e0ce"] ;
120 -> 122 ;
123 [label="onehot__direction_northbound <= 0.5\nsquared_error = 11150.22\nsamples = 2\nvalue = 1231.33", fillcolor="#f5ccaf"] ;
119 -> 123 ;
124 [label="squared_error = 0.0\nsamples = 1\nvalue = 1306.0", fillcolor="#f3c2a0"] ;
123 -> 124 ;
125 [label="squared_error = 0.0\nsamples = 1\nvalue = 1082.0", fillcolor="#f9e0ce"] ;
123 -> 125 ;
126 [label="onehot__direction_southbound <= 0.5\nsquared_error = 256.89\nsamples = 2\nvalue = 1079.33", fillcolor="#f9e0cf"] ;
118 -> 126 ;
127 [label="squared_error = 0.0\nsamples = 1\nvalue = 1068.0", fillcolor="#f9e2d1"] ;
126 -> 127 ;
128 [label="squared_error = 0.0\nsamples = 1\nvalue = 1102.0", fillcolor="#f8ddca"] ;
126 -> 128 ;
}